//Numpy array shape [32, 10]
//Min -0.862477838993
//Max 0.570176005363
//Number of zeros 0

#ifndef W11_H_
#define W11_H_

#ifndef __SYNTHESIS__
dense_2_weight_t w11[320];
#else
dense_2_weight_t w11[320] = {-0.3234143853, -0.7368513942, 0.1939325035, -0.3172095418, 0.0860157833, 0.3308967650, -0.6520230770, 0.0944276750, -0.1310188472, -0.0971646085, 0.2903550565, -0.1981592327, 0.1403876245, -0.0003996597, -0.0171077698, 0.1131054163, 0.1965163350, -0.3355839252, 0.3945589066, -0.1452816576, 0.2607983947, 0.4070937037, 0.3778626621, 0.4084298015, 0.0562022105, 0.2615711093, 0.4172410965, -0.0407909565, 0.0772676170, -0.4947684109, -0.6703900695, -0.1737944037, -0.1070043743, 0.5313873291, 0.2927449048, -0.2929523587, 0.5296305418, -0.0640649348, -0.5113604069, -0.2146954834, 0.2886129022, 0.2553264201, -0.5275291800, -0.2063632309, 0.1864680350, -0.1562038958, -0.3223085701, -0.2632990181, 0.4721647203, 0.4228184223, 0.0975396410, -0.3921700120, -0.3243777156, -0.2648146152, -0.4828831255, 0.0983655751, 0.1764356494, 0.2424017936, 0.2104857415, -0.3076489270, 0.1250241250, -0.1657144576, 0.3181372285, -0.0695599988, 0.3096026480, -0.6889304519, 0.2674324214, -0.5608958006, -0.0389811844, -0.2534589469, -0.1446664780, -0.7998830080, -0.2652702332, 0.1862783134, -0.4441045821, 0.2191499174, 0.2455297261, -0.3313955367, -0.0454386100, -0.1287236810, 0.1275827289, 0.0068033114, 0.1939966828, -0.2134332359, 0.3203043938, 0.3903295696, 0.2429218590, -0.0117619419, -0.1406591088, 0.1508777887, 0.4260665178, -0.4215489626, -0.6832305193, -0.4326195717, 0.2912057638, 0.2115712017, -0.1179631725, 0.4444464445, -0.0127284648, 0.2565176785, -0.1644276381, 0.1960430592, -0.4590707123, 0.4728303552, -0.5892351866, -0.1208916679, -0.3927145600, 0.0423842296, 0.4147153497, 0.1816766858, -0.3799154758, -0.1776098013, -0.7227333784, 0.4798935950, 0.3668720722, 0.0387498140, 0.3318247795, 0.1781652123, -0.1515357941, 0.4080374241, -0.3648273647, 0.1214656308, 0.3032114804, 0.1536298096, -0.2012617290, -0.2930800915, 0.2265288681, -0.3435515463, -0.2867212296, -0.5782991052, 0.0247386135, -0.3059580028, 0.2453465909, 0.0554915816, -0.0129295830, 0.3026511669, -0.6242597699, 0.0233470462, 0.2026077062, -0.5443543196, 0.1342695355, 0.2390155792, -0.0314857326, 0.2047459930, 0.4262681901, -0.2577379942, 0.2242744714, 0.4153464735, -0.0519787446, 0.0721357465, -0.2293155938, -0.8624778390, -0.4973927140, 0.1191914976, 0.2920375466, -0.0705952272, 0.0718370080, 0.2214535624, 0.3341652155, 0.3922357261, -0.2658666372, 0.4295240343, 0.0300833881, 0.3992812037, 0.2335215062, 0.2754291594, 0.3254686892, 0.2598761618, -0.0601860993, -0.3795095980, -0.0217362344, 0.1150794700, -0.2503588200, -0.2677549422, -0.2694236040, -0.2773642242, -0.3567973375, -0.1854169220, -0.1535241604, -0.2375419885, -0.3601471484, 0.1573393643, 0.0456139147, 0.2356615216, 0.0227007605, 0.1431042254, 0.2134120613, 0.3254075050, 0.2734078169, -0.4100668728, 0.2532850504, -0.2231554091, -0.0000870973, -0.3856335878, -0.1149956733, -0.3510047793, -0.5555825233, -0.0999440700, -0.2747161686, -0.0731243044, -0.2295434028, 0.2700091600, -0.0199972000, 0.1488237977, -0.0150759211, -0.3662826121, -0.2445547432, -0.6875891089, -0.2128356993, 0.1248139292, -0.1600786000, 0.0029404145, -0.0472389944, 0.4260265827, -0.2163192630, 0.0481823422, 0.4200704992, -0.3471178710, -0.1937786341, 0.0461486056, 0.3269040883, 0.0019688380, -0.4135025740, 0.4962739944, 0.3080932200, -0.5591568351, 0.5701760054, -0.2706054151, 0.4175450802, -0.3151459396, -0.1857127994, -0.4224930108, -0.0465062521, -0.1331135184, 0.1505840719, -0.3198860586, -0.4407684207, -0.1409913599, 0.2077647746, 0.4009190500, -0.2368410379, -0.0157296937, 0.3859958351, 0.2322789878, 0.2632672787, -0.4358703494, -0.2993011773, 0.3748585582, -0.0197844412, 0.2350928783, -0.1124582365, 0.4690873325, -0.4031747580, 0.0882178918, -0.0203738045, 0.0476830788, 0.1692911237, -0.4418087304, -0.0421304628, -0.2769127786, -0.2020709366, -0.1222083643, -0.0777190253, 0.3654824495, -0.1436356455, -0.2308807522, 0.5203040838, 0.4097417891, 0.3409335911, -0.1482440531, 0.2221868634, -0.1598694772, 0.0942611694, 0.0467998050, -0.3724732995, 0.3293721080, -0.3294368982, 0.1493645906, 0.4340122044, -0.0228457004, -0.1224051192, 0.2610433400, -0.5170746446, 0.0602535382, -0.3392518163, -0.2547472119, 0.0014749540, -0.1777937710, -0.0324096829, -0.0960574597, -0.3710920215, 0.4264006615, 0.2947107553, 0.0080234976, 0.0921633691, 0.2301077992, -0.2630504668, -0.1781702191, 0.0177764893, -0.2674886584, 0.1231010407, -0.1954145133, 0.3210318089, 0.3376347125, -0.0803826451, 0.0921204463, 0.1892403960, -0.4392684996, -0.2023811042, 0.1869883686, 0.3932154179, -0.1264069825, -0.2957631946, 0.2787829638, -0.3152509034, -0.2779197693, -0.3800094724, 0.4269951284, -0.2439592481, 0.3656564951};
#endif

#endif
